12.0 8.0 4.0 
0.4416441638142641 -0.7154850493616975 -0.5483075093098693 -0.9306865551351184 -0.602873045756336 -0.18311628149956127 -0.3164230639734127 0.4209807148541891 
0.4081183070804615 -0.38990071795321013 -0.2632385175298908 -0.16023659648628374 -0.039260264247832355 -0.6253224201148708 0.22264084995375844 -0.30815225835947646 
-0.6853111592987748 0.3503753545724939 -0.1527588994831146 -0.3270860565966156 0.1865262776417076 -0.35841294072193897 0.6187617484210579 0.28257198161037844 
0.4962585555628827 0.23488745856273696 0.974400784662621 -0.8122387502311514 -0.7978208273670679 -0.7738743366888932 -0.6397853670557128 0.9253701333268411 
0.15713539199886517 0.14580262284085577 -0.2627803396506039 0.03691017453812173 0.390089375414427 0.695293268235549 0.9888928111146895 -0.5668427939236003 
0.25004758321396015 -0.3071969566753161 0.2696838752174584 -0.4457493063942979 -0.5548669110542483 0.5767752217726871 -0.038895830739463344 -0.27918077086720205 
0.16778077608707953 -0.5742047133668686 -0.9085906369837471 0.9642800791468737 0.2177369976393122 -0.8721347842327001 0.8268483972222505 -0.42046252301034626 
-0.6822506140718985 0.06824970337947844 -0.04309808670317139 0.6608826365604732 0.6625344504486379 -0.4960758091238622 0.17288840343060996 0.9619773304734298 
-0.8501844480991441 0.6539820925914306 0.37876801231788293 0.563380233985129 -0.2870752724959622 0.45918795920671407 0.27492815264922266 -0.9638464102032582 
-0.2923328400737235 -0.049809797409630985 0.020187752478759036 0.0576659955172103 0.40184830624758505 -0.7872641193556233 0.9042094046115934 0.7657852551554625 
0.274068314678948 0.04955783992673668 -0.34803647096860435 0.5302330896744709 -0.9509095157741718 -0.3875668553275229 0.23383983923370555 0.2749519336563171 
0.18029415962474316 -0.4857613796389668 -0.13054407430732828 0.0029118932044589485 0.8354256337422448 -0.7703406638496735 0.2901653297545146 0.7548644858470728 
0.35006296477678633 -0.045467911216125145 -0.7352797454105933 -0.12387264252645136 0.5839149968707975 
-0.48236453567527304 0.8944984471539135 -0.829437378021016 0.6482773066116267 0.4250650914307794 
0.2491552266632624 0.28848969362288956 0.06867004271287058 -0.33383779195442953 0.5405160615086999 
0.5253514205236649 0.6048881389913721 0.521289979895722 -0.7780224095031585 -0.8994696621624163 
-0.32860551088595513 -0.7144181604166391 -0.847361712451123 0.9407901198239814 -0.4158073592394884 
-0.4408867991486267 0.27983354513597103 0.010396029793321881 0.7060166679962743 -0.44722379250988253 
0.17070138675507862 -0.6899554257441516 0.9698796239620149 -0.27953410431644676 0.1628612268054621 
-0.19068672144882637 -0.7682741717397517 0.9520132558026775 -0.09376281381616525 -0.21758322951599363 

